{
    "currentState": {
      "levels": [
        {
          "inputs": [
            0.15147186257614287, 0, 0.5280000000000054, 0, 0.15147186257614298
          ],
          "outputs": [0, 1, 1, 1, 0, 1],
          "biases": [
            0.17820556362576045, -0.3793412320456455, -0.1754058840487884,
            -0.501454736610777, 0.39546657716660655, -0.10609347723084533
          ],
          "weights": [
            [
              0.04706794040807588, 0.15722907658898413, 0.4606759384343532,
              0.4377447369953155, -0.703140764708477, -0.14325869976288463
            ],
            [
              -0.6341723478854587, -0.27219591489996275, 0.08849619975085951,
              -0.11018320803985773, -0.20011651618459128, 0.42919176296803335
            ],
            [
              -0.2010217310296202, -0.15982619389063826, 0.44944249311542445,
              -0.5210248544311649, 0.13622254421190927, 0.24391257341548195
            ],
            [
              -0.15273936395856472, -0.26888131629917755, 0.36691278825817153,
              0.3932966183030655, -0.10253760999974167, 0.22651690779422562
            ],
            [
              0.530677248710814, 0.06692301059153591, -0.06346238475270842,
              0.06381688614868289, 0.2830904734388869, -0.2642705744463643
            ]
          ]
        },
        {
          "inputs": [0, 1, 1, 1, 0, 1],
          "outputs": [1, 0, 0, 0],
          "biases": [
            -0.12545061205812058, -0.20933120554687373, -0.5348430234989234,
            0.008764535066026952
          ],
          "weights": [
            [
              0.31716846308902796, 0.022640491215319414, 0.47134625241889067,
              -0.3974154095266062
            ],
            [
              0.042090205039504086, 0.587775409857246, -0.31003394300584897,
              0.3891143309591231
            ],
            [
              -0.35174931075276666, -0.3295423752776388, -0.34775750825638463,
              0.01134940611065037
            ],
            [
              0.13812001038554939, -0.550392424738641, -0.5257915758412401,
              -0.37801078697611945
            ],
            [
              -0.5760927605327145, -0.38711102599147734, -0.41955545713897713,
              0.32281712045799055
            ],
            [
              0.1090510858748309, -0.36157580495669983, 0.19712996059752064,
              -0.5334537804401411
            ]
          ]
        }
      ],
      "createdAt": "2023-08-10T10:14:02.987Z"
    },
    "localStorage": {
      "levels": [
        {
          "inputs": [
            0.849419802094346, 0.7585125879084342, 0.010484540985937985, 0, 0
          ],
          "outputs": [0, 1, 1, 1, 0, 1],
          "biases": [
            0.27765090117223623, -0.43130670438404217, -0.2675893968590015,
            -0.6578991877114118, 0.3784431506185008, -0.027386774113949297
          ],
          "weights": [
            [
              0.14174023523186213, 0.06757138821581395, 0.4829576823910787,
              0.4412287628221542, -0.7140564488165734, -0.06097660877649762
            ],
            [
              -0.7043438863612497, -0.2882717256289056, 0.11384630609585067,
              -0.09583505208631264, -0.11620381370685615, 0.5472825896099293
            ],
            [
              -0.25798032164598395, -0.26618721425103403, 0.4981783950120594,
              -0.4934040384074871, 0.20447041592160675, 0.2964510277775731
            ],
            [
              -0.25973253866574914, -0.23525220837064525, 0.31450013391063136,
              0.5306212903548495, -0.20436252935237947, 0.28423812850451985
            ],
            [
              0.6421948307820595, 0.09758695032710821, 0.011875699070593451,
              -0.024138012278165664, 0.32502596386116683, -0.2951459989715558
            ]
          ]
        },
        {
          "inputs": [0, 1, 1, 1, 0, 1],
          "outputs": [1, 0, 0, 0],
          "biases": [
            -0.23508893518019788, -0.31211590319437577, -0.556502731922766,
            0.10876792634555285
          ],
          "weights": [
            [
              0.2744626212828013, 0.09267947752922558, 0.4376546193361157,
              -0.5112722297153164
            ],
            [
              0.13559230133036573, 0.6084026508247815, -0.29189962773435973,
              0.3947223184200473
            ],
            [
              -0.29405388255691456, -0.36367188043597504, -0.4056017150478973,
              0.1035774975340276
            ],
            [
              0.2523228740955667, -0.5226227042155336, -0.5562619203952907,
              -0.4423448094653458
            ],
            [
              -0.7021298329746163, -0.39948691943711384, -0.379218785532794,
              0.3495653892049746
            ],
            [
              0.015273217309160522, -0.3078171366613299, 0.2756354276476185,
              -0.6744021892733377
            ]
          ]
        }
      ],
      "createdAt": "2023-08-10T10:13:57.292Z"
    }
  }
  